{"nh":100,"ns":2,"na":8,"net":{"W1":{"n":100,"d":2,"w":{"0":0.025818952052942677,"1":-0.45958731064590386,"2":-0.057311744096860524,"3":-0.8089054256398713,"4":0.044020053463012646,"5":-0.31976100166334115,"6":-0.006616257252662312,"7":0.6388658884821063,"8":-0.08948996395998683,"9":0.2913449093211333,"10":0.014574531664244402,"11":-0.11993366815172075,"12":0.04986594620504734,"13":-0.26947617490435655,"14":0.0304239283653036,"15":-0.43422148159501633,"16":0.07938853449403628,"17":-0.4135429753705765,"18":0.015948624198361537,"19":0.7729125407401994,"20":0.02815269637792856,"21":-0.500374016921387,"22":-0.034268073636145695,"23":0.6402576920825978,"24":0.061355311976106844,"25":-0.42484585384880574,"26":0.009649770421371655,"27":-0.5498881400690848,"28":0.041133052620241826,"29":-0.16883074616488286,"30":-0.01374336578707342,"31":0.260198519458218,"32":0.021901456767956767,"33":-0.5702287839714081,"34":0.05833916517677943,"35":-0.5373292160412679,"36":0.03735678118491389,"37":-0.03909745117844197,"38":0.03571099047713319,"39":-0.5498905266420815,"40":-0.016929824206313043,"41":0.3450245817423497,"42":0.011490126175829254,"43":0.6118734955843678,"44":-0.037789892578400354,"45":0.0908783962626071,"46":-0.04441294270005483,"47":0.6430458648783844,"48":-0.012359614402450295,"49":-0.3830083076373777,"50":-0.01776030939237595,"51":0.5532009048137466,"52":-0.042345120310657555,"53":0.48502416955113414,"54":-0.06050940773841817,"55":0.5388760431337603,"56":0.110896604178679,"57":-0.3822776947792787,"58":0.04585003430777572,"59":-0.3878358187317623,"60":0.026473987195437258,"61":-0.2588446564744088,"62":0.015084778131955297,"63":-0.3394635028971189,"64":0.030213233796306527,"65":-0.3027227879792321,"66":0.013203083753681844,"67":-0.5163280071179198,"68":0.03377172472083678,"69":-0.6782087767994891,"70":0.08196318415578713,"71":0.8554825109704207,"72":0.05441773114886203,"73":-0.2628887244705507,"74":0.05642787794149523,"75":-0.45246717168004424,"76":0.04237522011774313,"77":-0.4033313384396726,"78":0.03288861335992092,"79":-0.3814991533229654,"80":0.0010536030840050201,"81":-0.6417819576324865,"82":0.06866352331756909,"83":-0.5857289517530826,"84":-0.02938607296298569,"85":0.4375998539951426,"86":-0.008745859738693124,"87":0.6706314536662968,"88":-0.04806040868330525,"89":0.5498376140351885,"90":-0.013442884798422044,"91":0.7346931389645546,"92":-0.0742777435463616,"93":0.5471823791177429,"94":0.01690861606113748,"95":-0.31024285517612477,"96":-0.05786266137491722,"97":0.5432121763107223,"98":0.0325741011378192,"99":-0.5143017931129518,"100":-0.042406679873841925,"101":0.4507492741536265,"102":-0.025631824940064756,"103":0.0015759092811593765,"104":-0.004363653014347093,"105":0.03167275291759359,"106":0.027395638995252446,"107":-0.07393392465096721,"108":0.009030620760875914,"109":-0.24865938812299174,"110":0.02193862718483381,"111":0.6259161446178397,"112":0.03188958172238469,"113":-0.6306789105235078,"114":0.01212652693314924,"115":-0.09242348362257227,"116":0.015465071858908795,"117":-0.09648766644428355,"118":-0.013287227543769767,"119":-0.7228709228197848,"120":-0.05194977960011461,"121":-0.7463917919031309,"122":-0.0520654403805477,"123":0.5266061973886994,"124":0.006195289071144423,"125":-0.5739257654664337,"126":0.0035214859663173603,"127":0.6803810857933575,"128":0.015399420849317747,"129":0.029304825569461325,"130":-0.018741370413775722,"131":0.14867296862215446,"132":0.09614863635070549,"133":-0.49509173160207337,"134":-0.022651233940683496,"135":0.13936726618891046,"136":0.013556527599619252,"137":-0.6832605061050654,"138":0.018734182590213866,"139":-0.31110396750754843,"140":-0.03484548269901467,"141":-0.0226765382013665,"142":0.0224435283343708,"143":0.3652924355421097,"144":0.01971765445309974,"145":-0.2933541821863146,"146":-0.047326707322934175,"147":0.07395870308279406,"148":0.01932850163031836,"149":-0.30949310737864116,"150":0.07548126417227356,"151":-0.4456731371489601,"152":0.005337411566252298,"153":-0.03834669271603865,"154":-0.07405718289018902,"155":0.6484852372776002,"156":-0.056416577391833256,"157":0.46440469115256594,"158":-0.001673793276338408,"159":0.04130529273125622,"160":0.02563701190056781,"161":-0.484072720327086,"162":-0.0187507561348245,"163":0.5732836784801018,"164":0.02791498605745075,"165":-0.6526049466241797,"166":-0.0022957959804621253,"167":-0.7534249505862097,"168":-0.027393842235644,"169":0.5445683334007166,"170":-0.0010373735098594809,"171":-0.05814645544991544,"172":0.07583936154138532,"173":0.8602763390201362,"174":-0.0030715117933947174,"175":0.4294808424951173,"176":0.033807656366687894,"177":-0.5906197658126523,"178":-0.029248014435043164,"179":0.5446783437709484,"180":-0.03501481284566044,"181":0.26607677282600467,"182":0.01492050419015841,"183":-0.6924339217555698,"184":0.023016796385121996,"185":-0.06696232067227778,"186":-0.012144492908548181,"187":0.45983823832685666,"188":0.003129652037426236,"189":0.5185041626165678,"190":0.015535051977926411,"191":-0.6467664145380201,"192":0.0037716301359711738,"193":0.058530039162202036,"194":-0.036583841935915795,"195":0.17438287077984999,"196":-0.021102156573627875,"197":-0.08600276947620733,"198":-0.035639143595673745,"199":0.3264379103438477}},"b1":{"n":100,"d":1,"w":{"0":-0.01960080670505607,"1":0.18516443885779554,"2":-0.008645497875035931,"3":-0.01635432635840605,"4":0.11005877405448591,"5":-0.07206053442131426,"6":-0.1779500732529004,"7":-0.012385900380120043,"8":-0.13639706588146205,"9":-0.12677645281822467,"10":-0.010358696960396468,"11":-0.028636422186039585,"12":-0.10083360524447856,"13":-0.01171094796821128,"14":-0.1040399723895343,"15":0.0039471612875228695,"16":-0.010052260642209395,"17":-0.10515482244816136,"18":-0.09853053739818349,"19":-0.011244698853231162,"20":0.05323812956077753,"21":-0.06624700304125984,"22":0.10306553454519296,"23":0.041251634692668133,"24":0.03905987762064041,"25":0.007295069621204287,"26":0.00827412634457859,"27":0.07960270614503852,"28":-0.24861175049130302,"29":-0.021350548428830315,"30":-0.06280111890349273,"31":-0.015296141280309282,"32":-0.027146380994997114,"33":-0.027964767401808827,"34":0.005175065488559632,"35":-0.27680727500096275,"36":-0.10622122433775924,"37":-0.05870575115180394,"38":-0.036123331688145695,"39":-0.011268010771850807,"40":0.0438065990801399,"41":-0.10610946488651606,"42":0.048437142773379155,"43":-0.01624591515331553,"44":0.026116272786884078,"45":-0.07957988599702856,"46":0.05317923217926454,"47":-0.029349370054696428,"48":0.08011603391359697,"49":-0.03327888674055352,"50":0.10062266331513203,"51":0.10273178271111791,"52":0.00008163072679896886,"53":-0.11479414084830576,"54":0.001354123992300391,"55":-0.05707595480666019,"56":0.013605225001517281,"57":-0.033667381980026986,"58":-0.05686776057191711,"59":0.07655647815835377,"60":0.19289724857932655,"61":0.054663613511582165,"62":0.02585511852469838,"63":-0.06935681027514456,"64":-0.0617946256082715,"65":-0.0395789243116168,"66":-0.1759952456742725,"67":0.040767974434315644,"68":0.025707233198450717,"69":0.009679364038501283,"70":0.045008027386306916,"71":-0.11664731173461844,"72":0.041504665186450435,"73":0.14500903334308796,"74":-0.052109222665035045,"75":-0.14568751199830604,"76":-0.017701905768121168,"77":0.07431179859956766,"78":0.08444487642410484,"79":-0.015766197933422602,"80":-0.009735239479211597,"81":0.015136320226209638,"82":0.006925874229631823,"83":0.08192462323139378,"84":0.020070333596160905,"85":0.04072450128044583,"86":-0.262698338083254,"87":-0.01597578397442496,"88":-0.048349333778514365,"89":-0.029528343836258988,"90":0.04442386321216637,"91":0.04196411946043745,"92":-0.08864174729988751,"93":0.01033404997637199,"94":-0.04237362780891783,"95":0.05286139275073573,"96":-0.018434976404227296,"97":0.06166239778365403,"98":0.0861633960132984,"99":0.03574477519753386}},"W2":{"n":8,"d":100,"w":{"0":-0.17421252557419495,"1":-0.41760792672809227,"2":-0.12158229395032812,"3":0.2986346976950792,"4":0.1296007546639439,"5":-0.06046034145177748,"6":-0.14557719536956004,"7":-0.17295839001482308,"8":-0.19055921921767596,"9":0.3805445635855959,"10":-0.21928937653636735,"11":0.2825517658211572,"12":-0.18975056781504437,"13":-0.240724804765315,"14":-0.0999555937035276,"15":0.09632329845048511,"16":-0.23795743547650017,"17":-0.27298954377466494,"18":-0.016600118545110724,"19":-0.2390764961360501,"20":0.15418537837811383,"21":0.2568770689839706,"22":0.06274414478370609,"23":0.327802234199727,"24":-0.1382200461663442,"25":0.2307850566546787,"26":0.20028446867765312,"27":0.25348481410311624,"28":-0.21841820702131753,"29":-0.15701119795629834,"30":-0.10626590920513879,"31":-0.13371871326536888,"32":-0.11066926034541895,"33":-0.2314555671394664,"34":-0.3439370697212303,"35":0.42416556245818077,"36":-0.13361170000778175,"37":-0.19135508521850855,"38":-0.16890714917674862,"39":-0.16173565448015065,"40":-0.2804909752150361,"41":-0.27363979230662394,"42":0.18420132415246512,"43":0.33636027022294673,"44":0.25737393132553654,"45":0.3778595518411368,"46":0.2682181383761201,"47":-0.1265154299101432,"48":0.2675433745450599,"49":-0.23741506157013947,"50":0.2043079414172278,"51":0.034425737233819864,"52":0.015707614805969328,"53":-0.051491346564783005,"54":-0.10139700866464423,"55":0.2683319227799279,"56":-0.30476814248326495,"57":-0.038913515075720835,"58":-0.046340660009737314,"59":-0.3599705553098248,"60":-0.32722663215781583,"61":0.2462158163312828,"62":-0.24603258607389586,"63":0.32389083870973145,"64":-0.0017918169562573351,"65":0.026896574448881348,"66":-0.262796749972387,"67":0.042868889009248956,"68":-0.3418840868163464,"69":-0.11670715997188379,"70":0.006822540800429144,"71":0.10598396584508106,"72":-0.09875935857994661,"73":0.07358929496562218,"74":-0.14662231900420644,"75":-0.2091337307030768,"76":-0.029870333890273718,"77":0.3491377889760476,"78":0.2061549003757192,"79":0.012165701311870527,"80":-0.2007864928667813,"81":0.26020412247161157,"82":-0.30822409947637247,"83":-0.39457425737959373,"84":0.24016658706838964,"85":-0.007444128821214164,"86":0.44495930382428656,"87":0.17324643783899155,"88":-0.2860209896516523,"89":0.22673999233815553,"90":0.1006972032323025,"91":-0.3450241466589308,"92":-0.058229930200049775,"93":0.19695238351598954,"94":0.20958703474756815,"95":-0.29884573769374984,"96":0.00898825567683833,"97":0.08669587427377078,"98":-0.009872834548185033,"99":0.13687839403027005,"100":-0.17756342098819855,"101":-0.42737153270334016,"102":-0.11125707178867558,"103":0.3084697882040366,"104":0.1127565842427796,"105":-0.05701155692313812,"106":-0.13333004130621248,"107":-0.15533977361015214,"108":-0.19125609591908166,"109":0.42160084516977575,"110":-0.1834932618798781,"111":0.29286725073604997,"112":-0.1786252184367835,"113":-0.23967952260541767,"114":-0.06852853940388023,"115":0.07033524855177052,"116":-0.2572059269456995,"117":-0.25310000315168574,"118":-0.04843879817712828,"119":-0.25783257179681707,"120":0.1264031537535243,"121":0.26523311218288714,"122":0.05046526550922453,"123":0.31723148500500425,"124":-0.1248732332248496,"125":0.2353278446958145,"126":0.18014978576995735,"127":0.23230747338738034,"128":-0.1979251072603412,"129":-0.1225049268782355,"130":-0.09086211541801142,"131":-0.1164343874715418,"132":-0.10650562207678803,"133":-0.22179601212961544,"134":-0.34440274577375807,"135":0.41348509335687683,"136":-0.11514519313351948,"137":-0.19092328402153827,"138":-0.1632349489765811,"139":-0.14182983959442313,"140":-0.2824643601989542,"141":-0.28944694560592754,"142":0.17049018901882212,"143":0.3331620078370537,"144":0.2383130095242019,"145":0.3772541488370583,"146":0.23679371294080842,"147":-0.10913746898171155,"148":0.25185991936354163,"149":-0.20319743430912135,"150":0.19767780650275285,"151":0.030516659375532586,"152":-0.008941893207884,"153":-0.05653753372019519,"154":-0.07152871605465778,"155":0.2742316197825913,"156":-0.2681555084501213,"157":-0.04510059289989162,"158":-0.039527181215803356,"159":-0.3693015311479932,"160":-0.33443926730234935,"161":0.2293870817817544,"162":-0.246378861011072,"163":0.31767892907208534,"164":-0.007677320443499468,"165":0.025472427721588323,"166":-0.24557842362567225,"167":0.05374513591687793,"168":-0.3259409928860268,"169":-0.09105716524047594,"170":-0.013664849085728216,"171":0.0876999607552022,"172":-0.07288880889724225,"173":0.04924492740989288,"174":-0.11027485385263168,"175":-0.19532871874854704,"176":-0.023358414996276545,"177":0.3200667743955012,"178":0.19836887505808845,"179":0.00371507248603786,"180":-0.18071008473488365,"181":0.25361525073533703,"182":-0.3157196527778294,"183":-0.40364916510259735,"184":0.22987930006487578,"185":-0.0033158746137755936,"186":0.4631896607259311,"187":0.15408405666805639,"188":-0.2809709489010502,"189":0.21640268998302628,"190":0.08859914224338057,"191":-0.3190475444361096,"192":-0.0341382460834144,"193":0.17518479501573095,"194":0.19367516248200628,"195":-0.27648433977153897,"196":0.017428858059895004,"197":0.07186417805617967,"198":-0.008545027693003979,"199":0.1168917394528664,"200":-0.1617146690370769,"201":-0.46159630361627263,"202":-0.1011175255679806,"203":0.2839521881135396,"204":0.10437892321612348,"205":-0.04777185828769682,"206":-0.10384478594606673,"207":-0.17454146484824828,"208":-0.1688075853626651,"209":0.4548498876976408,"210":-0.19867015317601525,"211":0.3214896676578612,"212":-0.18259571443976186,"213":-0.22950899960104001,"214":-0.0750866889802196,"215":0.09802641721258472,"216":-0.2400289854609491,"217":-0.22506279873269566,"218":-0.023500806452647297,"219":-0.20771826548258174,"220":0.11602716066571882,"221":0.24989929540143627,"222":0.04475576515969645,"223":0.31698324604072825,"224":-0.1227476958668183,"225":0.22582515557008528,"226":0.1934584308675104,"227":0.22902884851463903,"228":-0.1542151118765187,"229":-0.13760223353156276,"230":-0.10041525082605558,"231":-0.11476567967443017,"232":-0.10978175446666578,"233":-0.21329952478287512,"234":-0.34142039811765323,"235":0.48803713294103285,"236":-0.08584182431906648,"237":-0.1730135771847295,"238":-0.1567565075065194,"239":-0.11845903625147329,"240":-0.2930880033471584,"241":-0.28010430378916934,"242":0.16027117508641245,"243":0.31669679254690436,"244":0.22352319607876123,"245":0.4095091406429679,"246":0.22981522320707254,"247":-0.09629074908621431,"248":0.2459821378799568,"249":-0.21114492164891344,"250":0.17928746810874763,"251":0.022747492461329046,"252":0.024667662556518765,"253":-0.01854348426961399,"254":-0.0943591327734242,"255":0.2694614757509423,"256":-0.28831518930867694,"257":-0.04111786424463166,"258":-0.011975780585103289,"259":-0.37855552061747394,"260":-0.33740129874076424,"261":0.2170452122940573,"262":-0.24146447122356945,"263":0.3239383072451748,"264":0.005584021236776415,"265":0.05086059167245182,"266":-0.23146609534839396,"267":0.07184276796457856,"268":-0.3408697139528489,"269":-0.11758331479306035,"270":0.007320979499628214,"271":0.11997561538483446,"272":-0.07737044862962203,"273":0.02332028734033884,"274":-0.10603876664143023,"275":-0.18425255872000876,"276":-0.003110049373137448,"277":0.3274901113083611,"278":0.18542647005682336,"279":0.007781805872288465,"280":-0.18557236183936518,"281":0.2400598923298181,"282":-0.30772495713372805,"283":-0.437994181303849,"284":0.22841125813283353,"285":-0.021587365633517628,"286":0.5120987177790768,"287":0.1404895615453933,"288":-0.26185037124243177,"289":0.19727937550234353,"290":0.09537812172239846,"291":-0.3395955904073101,"292":-0.03194162098172969,"293":0.16511985186304978,"294":0.18956677982579212,"295":-0.3038613462064357,"296":0.01330274479950313,"297":0.05065179313994873,"298":-0.023133939216001907,"299":0.11644156697886215,"300":-0.18009654735349612,"301":-0.3935994475413346,"302":-0.12673206233605092,"303":0.29172991300625833,"304":0.1287126551453498,"305":-0.06562771943475472,"306":-0.13773583474078735,"307":-0.17489578849703424,"308":-0.1895759050863996,"309":0.3905481540045011,"310":-0.20001904084297473,"311":0.3140241700036535,"312":-0.19896002551123423,"313":-0.24855048527136606,"314":-0.08720683211145128,"315":0.07776908249862803,"316":-0.26215847699184686,"317":-0.2435427923742146,"318":-0.027533888899416773,"319":-0.22622176745069886,"320":0.13470563543909242,"321":0.25006940086354384,"322":0.053903610780519695,"323":0.32028260066383885,"324":-0.12512938016996553,"325":0.24427150366746916,"326":0.18653229436551774,"327":0.24726480087301328,"328":-0.21866923740815608,"329":-0.14711973043728568,"330":-0.09486936913265408,"331":-0.11289551713094063,"332":-0.10384427004506638,"333":-0.2087335432813772,"334":-0.3299270260241166,"335":0.39709571725845555,"336":-0.1051583928011817,"337":-0.1781566892961751,"338":-0.16173258774515314,"339":-0.1286618618761892,"340":-0.2793154386312088,"341":-0.2888740371789893,"342":0.18852399579569293,"343":0.31529024069742745,"344":0.23042922007222966,"345":0.36664398790685293,"346":0.2610410719997692,"347":-0.1343354357761155,"348":0.2575567155300222,"349":-0.2249254813654944,"350":0.2000718559556951,"351":0.013898702017794178,"352":0.02133472431958002,"353":-0.049689903353426504,"354":-0.0763439886850069,"355":0.2736921495422122,"356":-0.2828219130442278,"357":-0.038942189685126985,"358":-0.032777956361448805,"359":-0.3537400630156894,"360":-0.3041147459731256,"361":0.2361989934294723,"362":-0.22463565267949212,"363":0.296154980947575,"364":-0.008873916952906718,"365":0.03623189677116138,"366":-0.26243138619895634,"367":0.04875815955039839,"368":-0.34357188258356913,"369":-0.10512182629088333,"370":0.0014873075489216718,"371":0.0816290356724275,"372":-0.07467646166645672,"373":0.060376370196496734,"374":-0.11455982049465212,"375":-0.21098873154234393,"376":-0.0265962968858181,"377":0.34821365366764173,"378":0.2106761692513196,"379":0.017547337535761397,"380":-0.19390496345380556,"381":0.25498545673799106,"382":-0.31843601183609493,"383":-0.3929228388034243,"384":0.24239106166269103,"385":0.0064840333900807,"386":0.41209356265799496,"387":0.16315732215648662,"388":-0.28134466419307624,"389":0.22375679111547678,"390":0.10592859685495368,"391":-0.356831916409546,"392":-0.035368508202551864,"393":0.18839781446332698,"394":0.20497353472114105,"395":-0.27849901229607943,"396":0.01662056164721073,"397":0.06590965656588263,"398":-0.015543044787923895,"399":0.1253508989082882,"400":-0.21098653884791907,"401":-0.4608696088861828,"402":-0.1602010661510835,"403":0.28440439082490554,"404":0.05726146487312049,"405":-0.01080480262603941,"406":0.002392124201441426,"407":-0.20495431754319848,"408":-0.08257410637968005,"409":0.3870104136124227,"410":-0.23294049292188404,"411":0.28409741166437047,"412":-0.12074686822218203,"413":-0.24672851338294538,"414":-0.007548074144508034,"415":0.13849325516133543,"416":-0.244585680491607,"417":-0.1459912435140236,"418":0.06144821849827309,"419":-0.23950289482096598,"420":0.14467362224381988,"421":0.33413577505557196,"422":-0.034184503370766645,"423":0.2236102597736138,"424":-0.24356024125109949,"425":0.249940586940039,"426":0.2257999992984799,"427":0.1708636963683704,"428":0.028358207555967126,"429":-0.1840820739400821,"430":-0.09107996165757085,"431":-0.17613918556612942,"432":-0.14302823185926905,"433":-0.22294124535704382,"434":-0.2644029267180708,"435":0.5580276338086132,"436":-0.054147031101293104,"437":-0.16977988860061163,"438":-0.17338622032682405,"439":-0.19028354027551034,"440":-0.3127532745668532,"441":-0.1504166709909521,"442":0.18299183455750567,"443":0.2846473551290259,"444":0.22359640134953918,"445":0.33960163235893975,"446":0.19028812401346806,"447":-0.1498169077541945,"448":0.1694490194626447,"449":-0.21078262822653235,"450":0.13706088939697703,"451":-0.08546870390663001,"452":0.017187372200726882,"453":0.04928228712600476,"454":-0.13867995091465982,"455":0.33212037424659596,"456":-0.27468667311544126,"457":-0.02573604948389032,"458":-0.013502879546963935,"459":-0.3456078601962757,"460":-0.48202831948178043,"461":0.19247104144664942,"462":-0.28449697438595684,"463":0.3388136634799472,"464":0.06607733902173131,"465":0.11466306472870764,"466":-0.06848281954597212,"467":0.04392400626318402,"468":-0.2899952398935851,"469":-0.17476769277078744,"470":-0.05891079399756243,"471":0.2989403861805642,"472":-0.19632974092494213,"473":-0.07555830891284356,"474":-0.12742971151557006,"475":-0.08840285423160597,"476":-0.008635694845106666,"477":0.18059681491294813,"478":0.15336401209777156,"479":0.037722127914843404,"480":-0.22820383443457995,"481":0.2458345765192296,"482":-0.268713397812333,"483":-0.34374613618378325,"484":0.23023697634389678,"485":-0.06874691674623404,"486":0.5399226698677606,"487":0.24305245423544272,"488":-0.2113605348187138,"489":0.2805441909863022,"490":0.10853593367868923,"491":-0.30777457016262016,"492":0.031760043625364935,"493":0.22611648777594487,"494":0.2943788603412787,"495":-0.31409120836205145,"496":0.04529834112249412,"497":0.04731494755871689,"498":-0.12005226271738657,"499":0.14041591873530906,"500":-0.18699652981317963,"501":-0.4620139060865553,"502":-0.11412113967528413,"503":0.29478060252948807,"504":0.13687129849930396,"505":-0.030358256393640627,"506":-0.1085731928245173,"507":-0.1547998337094672,"508":-0.17460226030794246,"509":0.43852593398512824,"510":-0.1955155022636334,"511":0.3043181836267754,"512":-0.16766989752638334,"513":-0.22017113774008948,"514":-0.0550850321146048,"515":0.09471105516132475,"516":-0.24925358229811018,"517":-0.2642903014470151,"518":-0.029283123866267503,"519":-0.23709035439231815,"520":0.11754291233097884,"521":0.24600872235455307,"522":0.04473820921500198,"523":0.33106157861643065,"524":-0.10924016042369426,"525":0.22639992875146078,"526":0.18595765966445268,"527":0.2524157721619563,"528":-0.19494740721232945,"529":-0.12726555435316333,"530":-0.10078579631519946,"531":-0.09408555795629586,"532":-0.10053676667536157,"533":-0.2030595095375227,"534":-0.3719058102403252,"535":0.4540039028748455,"536":-0.10091060016740368,"537":-0.17254351342480354,"538":-0.13112333953186556,"539":-0.14034145733317607,"540":-0.28673480933358075,"541":-0.3071306441127975,"542":0.16049857441928309,"543":0.34976437577176483,"544":0.2589756842378615,"545":0.4067308246847317,"546":0.2508031765583726,"547":-0.09001804097673172,"548":0.23371733799951255,"549":-0.21054734565746547,"550":0.1853075920618267,"551":0.012569684594531358,"552":0.0013707449537619346,"553":-0.0345059962691207,"554":-0.07777789473910098,"555":0.26256797415798905,"556":-0.28882027959133555,"557":-0.013800599929217477,"558":-0.05723389714938311,"559":-0.39034076138813567,"560":-0.35087415641408287,"561":0.21534172280600083,"562":-0.22919790160841746,"563":0.32450115633996185,"564":0.0003033645799283186,"565":0.0408953956519445,"566":-0.21728255354629203,"567":0.04667459499483386,"568":-0.3460084123922412,"569":-0.1018643456122493,"570":0.011930360449531652,"571":0.09003350359674345,"572":-0.10788675635421627,"573":0.04347340024518496,"574":-0.09649009766597413,"575":-0.2084095534916265,"576":-0.010846850465638358,"577":0.3617500932068299,"578":0.18689375103083522,"579":-0.0003848531188958981,"580":-0.2000682451132747,"581":0.2624629380495729,"582":-0.3255544187185294,"583":-0.43573788371051153,"584":0.23605381591917401,"585":-0.004753032646376232,"586":0.5000022200577725,"587":0.14622361440346068,"588":-0.27492919035461716,"589":0.21439502572108632,"590":0.09444532384340704,"591":-0.37290066135436967,"592":-0.00977498556105049,"593":0.15866463781690582,"594":0.18199430189865756,"595":-0.3206134991101007,"596":0.02788835755199638,"597":0.06474415220201159,"598":-0.004967160539956851,"599":0.10873580464080235,"600":-0.19208685606373632,"601":-0.391698436227556,"602":-0.11720185826914899,"603":0.28592194592942405,"604":0.13764253476919522,"605":-0.054977481811874646,"606":-0.1334703976559684,"607":-0.1834642164795232,"608":-0.2178259273636246,"609":0.39355985254904685,"610":-0.20417781782351324,"611":0.27876170084079904,"612":-0.19354989493241362,"613":-0.2390959098797742,"614":-0.09055465805919664,"615":0.09381756790362024,"616":-0.2470992404530045,"617":-0.2659351112106941,"618":-0.06461948847681416,"619":-0.2560972090490443,"620":0.14551700233378212,"621":0.24070853269196935,"622":0.05012660518081616,"623":0.3184838393137489,"624":-0.11809112770942566,"625":0.24059644033214928,"626":0.1992524805955384,"627":0.2612911357450052,"628":-0.20394725399873398,"629":-0.15460302780792334,"630":-0.09850136927014572,"631":-0.1317973396835879,"632":-0.11905637800388394,"633":-0.2105850951291258,"634":-0.3349772648717874,"635":0.3765170519888917,"636":-0.13508247459682007,"637":-0.21001098246965025,"638":-0.16068780121956588,"639":-0.1293028868064613,"640":-0.2958165696397123,"641":-0.31597868609154606,"642":0.19850911863753143,"643":0.3206246332960731,"644":0.24686629204649965,"645":0.3742828897388286,"646":0.25997728594197667,"647":-0.09935518179631557,"648":0.2539485868944954,"649":-0.22647905082177305,"650":0.20284493751901433,"651":0.02028483006138877,"652":0.014723040720020234,"653":-0.06118669171302231,"654":-0.06625165463095162,"655":0.24960883408831855,"656":-0.30264693727379366,"657":-0.03625003002324387,"658":-0.05058216934399285,"659":-0.34039448831587504,"660":-0.29991443226398395,"661":0.24290037079460597,"662":-0.2393461389764155,"663":0.3199982540557413,"664":-0.008963297265725246,"665":0.04077351449382567,"666":-0.26661578404480785,"667":0.050735731283977084,"668":-0.32677961116979815,"669":-0.1135824085025899,"670":0.019578274577456065,"671":0.08533763092522248,"672":-0.09915824147633677,"673":0.053590414482326515,"674":-0.12315966984008057,"675":-0.21603618360249657,"676":-0.0037414133854280192,"677":0.32858838702403154,"678":0.21464054729082901,"679":0.022139867853793918,"680":-0.1883309872674877,"681":0.2417554671128163,"682":-0.30993258909272975,"683":-0.37922177587609374,"684":0.22605777037178565,"685":-0.015503964628945913,"686":0.40633928478957954,"687":0.15483945280541403,"688":-0.265777968557249,"689":0.22748877960178912,"690":0.11345335041347504,"691":-0.3386633340409852,"692":-0.045146262070264113,"693":0.1676003496063459,"694":0.18015337553358987,"695":-0.2808053806973962,"696":0.0031425347503980083,"697":0.07816493804784355,"698":0.006695252777305789,"699":0.13163084837168748,"700":-0.19521752455773775,"701":-0.3737567534822415,"702":-0.10878456229754087,"703":0.2973408357597197,"704":0.15489082213213584,"705":-0.05959556086143745,"706":-0.15837005281461575,"707":-0.15599583623668598,"708":-0.198779099069251,"709":0.36184027252602324,"710":-0.2210474772259876,"711":0.2958574062505504,"712":-0.19761579619228078,"713":-0.22021644834395784,"714":-0.07586083109455977,"715":0.08472893297211231,"716":-0.24652058350015327,"717":-0.25559264121883746,"718":-0.04346018592376598,"719":-0.22558262090635475,"720":0.13175200760200487,"721":0.2541135277297489,"722":0.06464451910273884,"723":0.33378105754975257,"724":-0.1255066671168664,"725":0.24393246046091463,"726":0.22034057268837257,"727":0.27070002689509803,"728":-0.21628665865152155,"729":-0.17984396503923153,"730":-0.11759231720361472,"731":-0.13808535603953584,"732":-0.12159341280040459,"733":-0.22724541076709343,"734":-0.3263638827696459,"735":0.36281855502040417,"736":-0.12071324439356738,"737":-0.21631544061901958,"738":-0.166546288666877,"739":-0.16103876834545408,"740":-0.29695604722423563,"741":-0.29639257657972,"742":0.17689618194761048,"743":0.31192642933760323,"744":0.24218467474043706,"745":0.3512934791659139,"746":0.24202965067519053,"747":-0.1256474174949714,"748":0.2603306190341247,"749":-0.214619614252167,"750":0.22043429647596272,"751":0.03879594010386047,"752":0.002428551339282978,"753":-0.06807160947237996,"754":-0.084814858734262,"755":0.26503832175425407,"756":-0.30525483803610315,"757":-0.04191840332294681,"758":-0.05798913902353298,"759":-0.3310824050592708,"760":-0.29711563575550504,"761":0.24829573683956285,"762":-0.24763039992101205,"763":0.3040919556043271,"764":-0.01401784218814532,"765":0.05378489618896999,"766":-0.24662762262168356,"767":0.06863132413310248,"768":-0.3274497649670076,"769":-0.08813311192504822,"770":0.010551581323178415,"771":0.09259648100629082,"772":-0.09285589447845809,"773":0.08936646865266074,"774":-0.1236173624627883,"775":-0.24087614417459705,"776":-0.012239052186126986,"777":0.3375876222304159,"778":0.22398913648252924,"779":-0.00034877767893396426,"780":-0.20353597237364116,"781":0.25759932487463033,"782":-0.3091748476025754,"783":-0.3735343353965368,"784":0.238284440777296,"785":-0.013096306399939492,"786":0.3869360652570829,"787":0.14184107813828367,"788":-0.28466427615085116,"789":0.2281870236939643,"790":0.10432138800116247,"791":-0.31676849794416206,"792":-0.06679317086608294,"793":0.18902488994425012,"794":0.20461984545323467,"795":-0.29071181593274364,"796":0.01536663406290938,"797":0.07794299232320502,"798":0.009964223710621877,"799":0.12356936550004449}},"b2":{"n":8,"d":1,"w":{"0":0.42101235064932485,"1":0.8311843912360356,"2":0.9307408800850471,"3":0.668006081707096,"4":1.3846514956680454,"5":0.7233456173363232,"6":0.6243904168763799,"7":0.5528358791678264}}}}
