{"nh":100,"ns":1,"na":8,"net":{"W1":{"n":100,"d":1,"w":{"0":0.0034409252410127155,"1":0.002022674034902741,"2":-0.0052025943127471976,"3":-0.01391979145425906,"4":-0.02513818566303687,"5":0.046012129224443615,"6":-0.008564648809888374,"7":0.10872738311128387,"8":-0.005535096011944312,"9":-0.18669766329455584,"10":-0.012569557948226005,"11":-0.000050365942597600474,"12":0.008409846927570557,"13":-0.0019603076539725173,"14":-0.0043263877672423115,"15":0.004270045156605911,"16":0.16521850920805684,"17":0.0041191756001223365,"18":0.2069170053058021,"19":0.21191331800143232,"20":0.010569348005145118,"21":0.0046237403032432,"22":0.31138188848413967,"23":0.009621032360992198,"24":-0.007617054781196882,"25":-0.17845082264733358,"26":-0.007528575981137273,"27":0.007358828411605872,"28":-0.008264135071857713,"29":0.0038707399730564117,"30":-0.006746003368630415,"31":-0.006188716554557846,"32":-0.0008881570608305694,"33":0.007241618120745286,"34":-0.17192276077577506,"35":-0.00004899017592872858,"36":-0.286241646801682,"37":0.004087746446070187,"38":0.1846014348834238,"39":0.1945027727143541,"40":0.009525654537336723,"41":0.20903379633309827,"42":-0.0016646143532728635,"43":0.0037629250075532374,"44":-0.23809499330760078,"45":0.13126032985737177,"46":-0.2945064057074206,"47":0.1983735113188868,"48":0.175547499360254,"49":-0.2564576568947249,"50":-0.04726912001280529,"51":-0.3033351193425165,"52":0.22323265062759554,"53":0.20287113935825754,"54":0.013803494867314128,"55":0.04895397130212019,"56":-0.12630999679031832,"57":0.003230863656914701,"58":-0.05319794248263151,"59":-0.008104737632691818,"60":-0.0076165559789614715,"61":0.2730723681730191,"62":-0.22031035911765748,"63":-0.005074006660493793,"64":0.04912985468224743,"65":0.10664261620657706,"66":0.010136894962452833,"67":-0.005246159531663835,"68":0.007612642218420133,"69":0.012550788403666205,"70":-0.0070727327779454546,"71":-0.19096923649704622,"72":0.009080413248828072,"73":-0.006454314072246896,"74":-0.0027489468458760167,"75":-0.03409416174322978,"76":0.00364521425786065,"77":0.007706206736585016,"78":0.00960893712109966,"79":0.010616267415761313,"80":-0.23949652118289996,"81":-0.009218176510062383,"82":0.003416890733781086,"83":0.1751509001447135,"84":-0.04641541468110962,"85":0.22721481269275315,"86":-0.011260710408348282,"87":0.25851299661657956,"88":-0.0058886303758516,"89":-0.008656716618132576,"90":-0.010038066447669386,"91":0.0071555387166223,"92":0.3385588328961107,"93":-0.2244541346104843,"94":0.009317655624020524,"95":-0.00127128251980806,"96":-0.009677142035416619,"97":-0.029705923540278706,"98":-0.18718768804047808,"99":-0.009246636581196541}},"b1":{"n":100,"d":1,"w":{"0":0.024098559932181497,"1":-0.008025588891080612,"2":0.0003815209792556439,"3":0.021485774311685493,"4":-0.05199485880406221,"5":0.038892872124724864,"6":-0.010034620045932668,"7":0.0707491380985616,"8":-0.012486439628136024,"9":-0.0733395521637248,"10":0.03232794477525307,"11":0.00174077574417509,"12":0.0019977375469540175,"13":0.019733831592221442,"14":-0.010955746740149526,"15":-0.003704180340330475,"16":0.05028352533659574,"17":-0.0035542349776070165,"18":0.04267830597775754,"19":0.11315374967596212,"20":0.009642526082522139,"21":0.01947997260109085,"22":0.18262888034214667,"23":0.01783095627073496,"24":-0.014178187377769743,"25":-0.0739912215227087,"26":-0.01089120264742288,"27":0.005362733171903743,"28":-0.000903305710103833,"29":0.0170287457850176,"30":-0.009774340864217648,"31":0.0177058359860562,"32":0.010035418255207994,"33":0.013609786985253499,"34":-0.04724391833446213,"35":-0.03448665317449444,"36":-0.16664832071798988,"37":0.02899765222608083,"38":0.1039039023750555,"39":0.11084384193440665,"40":-0.011243448992317526,"41":0.10871844731151216,"42":-0.004762829357211491,"43":-0.009798189683670244,"44":-0.1314982484289313,"45":0.07144958862103395,"46":-0.15966919874729424,"47":0.10456945820020026,"48":0.08178368009959287,"49":-0.15583554959589213,"50":-0.007753855834810509,"51":-0.1775775011300341,"52":0.12221421876526334,"53":0.10088076128947462,"54":-0.034463471738623866,"55":0.03825899632748744,"56":-0.06659715645113579,"57":0.007706694348590486,"58":-0.07639149251215631,"59":0.0002784371686111479,"60":-0.02870420186503883,"61":0.19278279668320195,"62":-0.13612987210142183,"63":-0.00015099090955209476,"64":0.038355433853555373,"65":0.037543551209335786,"66":-0.015105450838485331,"67":-0.004942151297085198,"68":-0.005642275867515143,"69":-0.03437309355605716,"70":-0.001871370046643425,"71":-0.09593490231152786,"72":0.028470609369107714,"73":-0.005001109549281787,"74":-0.005521077791734775,"75":-0.039574598138861,"76":0.015573469677429232,"77":0.02650200891280211,"78":0.018316829574422183,"79":-0.01453743113695999,"80":-0.11366562500483356,"81":-0.033176188798176354,"82":-0.036181778266403244,"83":0.08801550799332414,"84":-0.05872596509850724,"85":0.1243965642262851,"86":0.033987105275020704,"87":0.16333360363096244,"88":-0.01558874315903053,"89":-0.04758846527548052,"90":0.030082805056043903,"91":0.0017674293960834742,"92":0.211369452343538,"93":-0.12336914397205886,"94":0.022073019223991647,"95":0.001606128643079295,"96":-0.009963829029895436,"97":-0.04375116809978086,"98":-0.061709893003552736,"99":-0.006315900538492842}},"W2":{"n":8,"d":100,"w":{"0":0.012306648630031187,"1":0.004269735164108842,"2":-0.008676400221351412,"3":-0.017887911689343096,"4":-0.05217346059947562,"5":0.0632439275427207,"6":-0.018493203305285373,"7":0.08677177699056586,"8":-0.010142556527544923,"9":-0.1190092148014739,"10":-0.020052209794813827,"11":0.0011833471074899128,"12":0.015144910624221603,"13":-0.0013216311525258617,"14":-0.012297884836665742,"15":-0.006830217368895805,"16":0.07486613341690344,"17":0.005005360058122404,"18":0.09766226127759195,"19":0.09298620739817004,"20":0.03737410403846762,"21":0.0027945009987321236,"22":0.12481663004022248,"23":0.038087502883600154,"24":-0.02537803421570222,"25":-0.11030728694652372,"26":-0.008282683487809726,"27":0.016303764420955373,"28":-0.028094443688281484,"29":0.012213085968589325,"30":-0.018682991409048156,"31":-0.006135603719248113,"32":-0.0005714177007458101,"33":0.021803193370979947,"34":-0.09165077949066032,"35":-0.0009504110731913976,"36":-0.11878128641822414,"37":0.02653302717815734,"38":0.07874851377550254,"39":0.09249674218568676,"40":0.016356728415165587,"41":0.10726626382762525,"42":-0.005053310672494769,"43":0.003949934989893425,"44":-0.09967412068909512,"45":0.08848592986315976,"46":-0.10761459764209717,"47":0.10045958981393313,"48":0.09826159888625362,"49":-0.1082708178027425,"50":-0.05024727855686604,"51":-0.1178693584117316,"52":0.1057259663645357,"53":0.10535706720770886,"54":0.0069953296409925115,"55":0.052859504329661834,"56":-0.10308744206879317,"57":0.015389129995334176,"58":-0.061375080239624305,"59":-0.013931074826674368,"60":-0.022549660135599173,"61":0.10349074893982393,"62":-0.11926021122568278,"63":-0.008879923501373602,"64":0.06904858013895486,"65":0.07673863122898227,"66":0.014677812779560718,"67":-0.00424252367313814,"68":0.013380478208025941,"69":0.007553576372089124,"70":-0.025395372397384826,"71":-0.10031565477985568,"72":0.029143940098224068,"73":-0.017753819775802624,"74":-0.006415712207292285,"75":-0.05637049581878541,"76":0.010202087709382478,"77":0.031011174671331757,"78":0.016387772632886884,"79":0.03449838322123711,"80":-0.12117718061799454,"81":-0.01252622376748972,"82":-0.000915944495279151,"83":0.08081169776272218,"84":-0.04808978100713101,"85":0.10431091849360435,"86":-0.011117854548304582,"87":0.0924145302236805,"88":-0.022763084249614957,"89":-0.029234348331204363,"90":-0.01625338952269285,"91":0.02243735052578077,"92":0.12098386359747015,"93":-0.107464547981724,"94":0.024981068142852503,"95":-0.005063130955340849,"96":-0.021069171363745566,"97":-0.04574671269867313,"98":-0.08738370146719855,"99":-0.024860367696628607,"100":0.023934384726217228,"101":0.011248300116147286,"102":-0.018285839055182225,"103":-0.017362533924609763,"104":-0.05970423375992953,"105":0.08412864356496587,"106":-0.02455125076105848,"107":0.08888713828843223,"108":-0.030372497111356506,"109":-0.08927995133123931,"110":-0.01987541337171787,"111":0.004086119877640635,"112":0.03844983823723766,"113":0.005080183382124845,"114":-0.015493333174048848,"115":0.004451460699346994,"116":0.10411953876091869,"117":0.018057282873426863,"118":0.09021015640586286,"119":0.09837789506258202,"120":0.04996049858180513,"121":0.02591441278286862,"122":0.11178102878195413,"123":0.04845711810830045,"124":-0.04022128244517433,"125":-0.08547542803580109,"126":-0.031645664350769466,"127":0.018759860643383405,"128":-0.017916265677774275,"129":0.005021601260036432,"130":-0.02982501504884752,"131":-0.0009165028626179198,"132":0.007682942814330622,"133":0.038378413164651286,"134":-0.10820138297624436,"135":-0.015949129032057585,"136":-0.09369471814475215,"137":0.020539502936603133,"138":0.08925097771652922,"139":0.10068255109180074,"140":0.019431192091508266,"141":0.09070606228618827,"142":-0.009886463553701647,"143":0.003289975161776702,"144":-0.10927414622260657,"145":0.10694041733007356,"146":-0.1147045919099165,"147":0.09740698913142337,"148":0.10043147695211242,"149":-0.08987105615421756,"150":-0.0738660945752046,"151":-0.10217007793317104,"152":0.10490999663262397,"153":0.09890069528064056,"154":0.008499894464486454,"155":0.09610167729263652,"156":-0.0694641503807175,"157":0.019817369768261928,"158":-0.06436124676138355,"159":-0.02299804476475655,"160":-0.02310187632774774,"161":0.0870317867913476,"162":-0.08930676311422937,"163":-0.008296683542942197,"164":0.06642598322948387,"165":0.0846443125724711,"166":0.02126951418263559,"167":-0.016070131515779216,"168":0.018747479907040034,"169":0.009469385826292242,"170":-0.029936514271554835,"171":-0.08973044367589308,"172":0.035362655164756236,"173":-0.016772474545758188,"174":-0.013697241774181277,"175":-0.07674275469756316,"176":0.014585178512433548,"177":0.04220736889305987,"178":0.03934720334689188,"179":0.040956911640208385,"180":-0.09165402007610574,"181":-0.04072592409360991,"182":-0.012984378543612484,"183":0.08958690639293203,"184":-0.08486936774762828,"185":0.08984921006079508,"186":-0.010974468811925353,"187":0.10174038184200852,"188":-0.03980312386640016,"189":-0.0425874169495757,"190":-0.014540497011524251,"191":0.04591384846421195,"192":0.11268152485186786,"193":-0.08851191576423567,"194":0.05218867458316219,"195":-0.007608483738649285,"196":-0.03022224060596784,"197":-0.07977341845245145,"198":-0.08799950279151278,"199":-0.04213682889487839,"200":-0.005310946712839448,"201":-0.0029393434194854694,"202":0.006578041461327784,"203":0.013373951101475299,"204":-0.0015331074194473476,"205":0.018243416409860744,"206":0.009270113700352134,"207":0.07023040867506847,"208":0.008668588078986055,"209":-0.1029010186710059,"210":0.012672442442318403,"211":-0.0014609004581821582,"212":-0.011866163780595363,"213":0.002263467559185894,"214":0.004324360821194119,"215":-0.0023596503894113786,"216":0.07554850315370448,"217":-0.00534843169060505,"218":0.09379317332605407,"219":0.10226799456457542,"220":-0.009099983031862444,"221":-0.007564634533826734,"222":0.14362520446599028,"223":-0.008390344159211109,"224":0.007870504612572582,"225":-0.08474706065186605,"226":0.010996384259238929,"227":-0.004099325772167862,"228":0.00815583321805411,"229":-0.005305854114719618,"230":0.009473522806486402,"231":0.005699571709437571,"232":-0.001883459159232303,"233":-0.009125133562494414,"234":-0.07264378789845834,"235":-0.0002728507017613728,"236":-0.14208805832895113,"237":-0.010411918279963971,"238":0.11106976825908711,"239":0.10654491843859536,"240":-0.006750230640751251,"241":0.09712426118624133,"242":0.0002829419841999858,"243":-0.0009400038367068983,"244":-0.126710322601883,"245":0.058940219904941166,"246":-0.1667293184297278,"247":0.10847278156485282,"248":0.0892375140155023,"249":-0.12588238512045063,"250":-0.01579059484728777,"251":-0.15616041089978025,"252":0.10952044500528486,"253":0.09871091785805779,"254":-0.010314093770842192,"255":0.009860512415684461,"256":-0.07260288971192647,"257":-0.007363127611328981,"258":-0.021513380181116374,"259":0.008241195644578822,"260":0.007731733595334694,"261":0.1210248994401543,"262":-0.10206568792057608,"263":0.0049865569923342465,"264":0.011989512365468883,"265":0.03547289592795544,"266":-0.010456376448412033,"267":0.006070854449385834,"268":-0.00876941647414271,"269":-0.009685499167305687,"270":0.009101686056160671,"271":-0.1058963930291296,"272":-0.006827304962879536,"273":0.007427672077137635,"274":0.008535589542446778,"275":-0.005720910852616243,"276":-0.0033123195982414835,"277":-0.00792130276528979,"278":-0.00977229472867025,"279":-0.013854575961916828,"280":-0.12287343555888051,"281":0.011527833566743854,"282":-0.003565448198211726,"283":0.0859141494504646,"284":-0.02161152469062671,"285":0.11277600303591949,"286":0.009497160287739968,"287":0.13557438230609903,"288":0.0079722316132287,"289":0.006129766295620926,"290":0.006103066198318773,"291":-0.0066582841109727835,"292":0.1589258684000313,"293":-0.13157362816886378,"294":-0.010390167364396718,"295":0.004700751681009993,"296":0.013802243472685587,"297":-0.004595049746016383,"298":-0.07952352151171474,"299":0.011873008845741563,"300":0.013549780454887883,"301":-0.009928081931355243,"302":-0.012599477253904562,"303":0.011229411065378773,"304":-0.039111494507257094,"305":0.045460792647890456,"306":-0.006734321459720203,"307":0.06665222731515301,"308":-0.016369251389165895,"309":-0.10168122614916676,"310":0.00235057361449239,"311":0.0009898823369236828,"312":0.03174330072160506,"313":0.0061876902380617925,"314":-0.0068768968141684735,"315":-0.009249014654421123,"316":0.09562354743644033,"317":0.0019808092374581448,"318":0.0957666476400527,"319":0.0947594485726432,"320":0.03184170802379261,"321":0.013300604172117302,"322":0.1022518279472628,"323":0.03206743634357063,"324":-0.020077140870268382,"325":-0.08958112445950292,"326":-0.015153272048890097,"327":0.0023740909684323358,"328":-0.008014062612809814,"329":0.008164640611737885,"330":-0.023931336834414483,"331":0.010034220892826741,"332":0.0074922712763567795,"333":0.02492967681199096,"334":-0.07768677366281536,"335":-0.0038206759761532315,"336":-0.11319578870071789,"337":0.030531870234357796,"338":0.0875775603113551,"339":0.08843745362553582,"340":0.004654708191498305,"341":0.11769198629245903,"342":0.002927648607041513,"343":-0.008519000396207076,"344":-0.1020591779209963,"345":0.07433668527957676,"346":-0.10602395304503118,"347":0.09363907412617677,"348":0.09763176323383645,"349":-0.08953349530539076,"350":-0.0416493018729604,"351":-0.1215980162724524,"352":0.09056382224262052,"353":0.07794092470162049,"354":-0.00263702969196275,"355":0.0521506437466333,"356":-0.06612834512220192,"357":0.011747007976224355,"358":-0.08040209653734465,"359":-0.010973229808186909,"360":-0.01985621618519731,"361":0.10004995436547615,"362":-0.11236948021495174,"363":-0.0031593748342759014,"364":0.05485805236589838,"365":0.07690005458526217,"366":0.004745465899237978,"367":0.0055327413751013466,"368":-0.0022772139824179718,"369":-0.004999598483391604,"370":-0.015843843858597453,"371":-0.09178528185305544,"372":0.020026400915339474,"373":-0.014613087903546956,"374":-0.01728502505304466,"375":-0.03815227503825437,"376":0.015575957268003641,"377":0.03484454728505157,"378":0.02293332879141237,"379":0.027202263808847826,"380":-0.10456798491497941,"381":-0.04344732857141069,"382":-0.011987525137297157,"383":0.09266475547453155,"384":-0.04575788332510495,"385":0.10470254767923068,"386":0.0043555767463533505,"387":0.10802081783904786,"388":-0.018857663220119513,"389":-0.037002194041995805,"390":0.020190619303803312,"391":0.018004365636747045,"392":0.12413335510760076,"393":-0.07688851265458778,"394":0.029600064095794094,"395":-0.004907937084179671,"396":-0.020159729653635706,"397":-0.03273353639066483,"398":-0.087651350594566,"399":-0.029104614042517032,"400":0.03172477563047869,"401":0.0044116795731752815,"402":-0.022683521745519245,"403":-0.03586716818530021,"404":-0.07208144095864914,"405":0.06737618416926416,"406":-0.03642040211182819,"407":0.07003861806715428,"408":-0.030743788305207954,"409":-0.01584307362519579,"410":-0.029041916813210618,"411":0.0018158566000950162,"412":0.03483607213174571,"413":0.0031818452170875853,"414":-0.021993159193587238,"415":0.008154993534246676,"416":0.011207378361996674,"417":0.01620273302675775,"418":-0.030941595089938375,"419":0.04123417472672175,"420":0.04197991925019268,"421":0.032102433449693976,"422":0.11673047447110216,"423":0.04228217640115701,"424":-0.038091542961455525,"425":-0.020114707494912138,"426":-0.03441215789383449,"427":0.028842911635640345,"428":-0.03269829982483314,"429":0.026438809990822855,"430":-0.034686300966683105,"431":-0.01209368413845941,"432":0.005168688846632915,"433":0.03569354320160277,"434":-0.003892398096560538,"435":-0.01723086006473786,"436":-0.0929686153496701,"437":0.039250824734470675,"438":0.042844275808054874,"439":0.045021714994769556,"440":0.02789026071546355,"441":0.038019294386926514,"442":-0.006278095141636953,"443":0.006047280929684656,"444":-0.0561483159077352,"445":0.05433410056468334,"446":-0.08825459023067588,"447":0.03805689491280857,"448":0.026842255491547732,"449":-0.08213771782814064,"450":-0.04587397894673681,"451":-0.10972946721077592,"452":0.04705078958251708,"453":0.03210273255364885,"454":0.029530596761212505,"455":0.06609001217010801,"456":-0.05521037381259057,"457":0.022022057218167346,"458":-0.09718035804215025,"459":-0.032095420130153,"460":-0.04241082800419021,"461":0.12695144374618741,"462":-0.0646757370883244,"463":-0.024309165941956007,"464":0.06968095307123634,"465":0.045142404532206984,"466":0.029958998080504468,"467":-0.02145573825351976,"468":0.024746700559884,"469":0.026584380038256746,"470":-0.03138526869831011,"471":-0.030578558275639524,"472":0.04606876811292928,"473":-0.030711780056844707,"474":-0.02303768723878598,"475":-0.06971772577094537,"476":0.025115288182702027,"477":0.042047388410711206,"478":0.03986798360294357,"479":0.030845658124898808,"480":-0.031114024711766622,"481":-0.047552903832707855,"482":-0.00623602458084272,"483":0.03139276329558437,"484":-0.07843679156296328,"485":0.04669327650992427,"486":-0.025336224301533858,"487":0.09118502797771708,"488":-0.036326912458159374,"489":-0.0512341743528784,"490":-0.023984768468719508,"491":0.03181055138782868,"492":0.15408762301633636,"493":-0.04557281865989255,"494":0.04318561666696029,"495":-0.010115343199560374,"496":-0.040752263556462824,"497":-0.0674712452669559,"498":0.00004528445238542874,"499":-0.0390878404684526,"500":-0.01106742747498682,"501":-0.002004800627753179,"502":0.008304571692712957,"503":0.011399759344070351,"504":0.02004203341035706,"505":-0.009654618858870147,"506":0.0131174624275462,"507":0.031973378584961694,"508":0.010183650903920824,"509":-0.0703342316789557,"510":0.01010739193755034,"511":-0.0022186511006488142,"512":-0.015470661701575636,"513":-0.0011782437755196338,"514":0.0055170272751742895,"515":-0.00030482626256199863,"516":0.051393606047154074,"517":-0.006112634698920416,"518":0.0736232500642428,"519":0.11968949928890489,"520":-0.018880625665043234,"521":-0.011371177565301848,"522":0.18170718359766652,"523":-0.01655650120255452,"524":0.017385708200633235,"525":-0.07715695678859232,"526":0.012053460988697789,"527":-0.009659088646741342,"528":0.011129248952633945,"529":-0.008805348354123973,"530":0.014832783006062281,"531":0.001990462806487559,"532":-0.0034371324500108522,"533":-0.015157176752988735,"534":-0.05541280286294316,"535":0.00421983582517977,"536":-0.16720726722357634,"537":-0.01598285086597782,"538":0.09214339934122057,"539":0.10537184386112522,"540":-0.010140640099312157,"541":0.11503826751448866,"542":0.0013432607446403006,"543":0.0009331318098612975,"544":-0.13358776134016914,"545":0.055024121394562045,"546":-0.1632869618640866,"547":0.09894890967427868,"548":0.0818162416090991,"549":-0.14913899191678126,"550":0.011781055363796896,"551":-0.16668913474293934,"552":0.13221368102341075,"553":0.11231955018555438,"554":-0.00893859340856144,"555":-0.0041937982785267384,"556":-0.04334358008308136,"557":-0.006816992443972168,"558":0.003854857496162885,"559":0.013226410588625986,"560":0.013462311057169617,"561":0.15021051606639194,"562":-0.12751745705925085,"563":0.00982718775943761,"564":-0.008756693736805694,"565":0.022409785652437623,"566":-0.010422515124217636,"567":0.006524978919096601,"568":-0.006572743036444622,"569":-0.00815849907904939,"570":0.015172889415984502,"571":-0.09347910197433297,"572":-0.019497444748597596,"573":0.012483584445209086,"574":0.009788885276458905,"575":0.02183191858492758,"576":-0.008054339644544077,"577":-0.0150925138777347,"578":-0.01192466996968743,"579":-0.01779050021866299,"580":-0.1409729487462692,"581":0.015622013839331267,"582":0.0017513992301888017,"583":0.09025745174505855,"584":0.00170883633358122,"585":0.13421226800173638,"586":0.009151911586912396,"587":0.14235496127629982,"588":0.018451651087569656,"589":0.01663331668349684,"590":0.0076558690907220575,"591":-0.01577357566036165,"592":0.18836143810624426,"593":-0.12647727441345805,"594":-0.01588689295459195,"595":0.004817110116912161,"596":0.014987262421272601,"597":0.014667843154457705,"598":-0.0834778610421271,"599":0.018304599290379277,"600":0.0286582298870861,"601":0.007987887522060921,"602":-0.011163598685037433,"603":-0.017108881912149255,"604":-0.04213278636954618,"605":0.05959463373416254,"606":-0.021485521268667488,"607":0.07586666081130007,"608":-0.01866067289546602,"609":-0.08135704854117345,"610":-0.009380811981114059,"611":0.003733146794429118,"612":0.02023759400316182,"613":0.002281901873659743,"614":-0.0034352112893509743,"615":-0.003980174342727546,"616":0.07695743206901143,"617":0.011426245102353716,"618":0.06693419682574626,"619":0.10774299175362569,"620":0.03088946172609696,"621":0.03090169559873421,"622":0.09783286256878951,"623":0.024048458686415815,"624":-0.030410970192303464,"625":-0.09092719865723321,"626":-0.021045160796411052,"627":0.007622363760337234,"628":-0.013164272837137284,"629":0.017539854072034348,"630":-0.024132898557913934,"631":-0.0016594017996314592,"632":0.010508011617707785,"633":0.021393310146440248,"634":-0.07775040589387155,"635":-0.007812822761012226,"636":-0.08918964632450077,"637":0.03999524904238408,"638":0.08285907594387094,"639":0.0818048161087706,"640":0.004491459694248073,"641":0.1022935105778874,"642":0.0028194275108275307,"643":-0.005296017293229373,"644":-0.09627613972680661,"645":0.06677377986256178,"646":-0.08096316858210631,"647":0.10815691473270256,"648":0.08448300209495084,"649":-0.10488034530845484,"650":-0.053206266301095255,"651":-0.10619409886040491,"652":0.08582177040021398,"653":0.08732619052518661,"654":0.001993210665756773,"655":0.05017631094379918,"656":-0.06805158465191566,"657":0.015302929559354889,"658":-0.05655028122593123,"659":-0.019511223602143357,"660":-0.019543947309294495,"661":0.07961221702169598,"662":-0.10148322467494689,"663":-0.022824983451662718,"664":0.06408922056733499,"665":0.0751164766500807,"666":0.011525942687603307,"667":-0.014294051762691416,"668":0.008484196116541403,"669":0.005149635753565307,"670":-0.0235552349061555,"671":-0.10134608951964545,"672":0.0366535384513983,"673":-0.018847042637510168,"674":-0.02871650555252043,"675":-0.039231829460397896,"676":0.011327380479392956,"677":0.017769725116002964,"678":0.007058702545161445,"679":0.023216549351716523,"680":-0.0733757720982431,"681":-0.022833548508498783,"682":0.00021072996722529177,"683":0.07826540386643635,"684":-0.04816452949655691,"685":0.10572229095353104,"686":-0.012259991583008266,"687":0.10411689011118933,"688":-0.04412597308590495,"689":-0.03004776946308579,"690":-0.019781504195870065,"691":0.027719614180190297,"692":0.10701922180208026,"693":-0.08749588681958345,"694":0.026103639650396655,"695":-0.016497383030167075,"696":-0.025876094101700577,"697":-0.05780850577792025,"698":-0.08417143660488245,"699":-0.03091542069758666,"700":0.022677210772911696,"701":-0.001239237267984351,"702":-0.01664326993786976,"703":-0.017231471056157088,"704":-0.03617273777255678,"705":0.04843592638868322,"706":-0.028791287921473188,"707":0.06843665576781639,"708":-0.0015844230519621622,"709":-0.09720061803296312,"710":-0.010320294452474198,"711":0.0023927575957925725,"712":0.024125162005654975,"713":0.012797415807815921,"714":-0.011796366479638658,"715":0.002226010905962478,"716":0.0992129940910983,"717":0.006676207399951219,"718":0.10379616646634102,"719":0.12643058689017125,"720":0.024209851293536717,"721":0.026488917435404966,"722":0.10825840907667203,"723":0.03741292731744857,"724":-0.02337253266318153,"725":-0.09384318310980838,"726":-0.014902404128062033,"727":0.027353636305961777,"728":-0.02344071793095925,"729":0.030441138341752088,"730":-0.02379522492224713,"731":-0.0036219114850358177,"732":0.01996695427700192,"733":0.04158826345197368,"734":-0.10579770811158767,"735":-0.01568680202031504,"736":-0.10910079822975367,"737":0.030754583263038184,"738":0.11312167524234085,"739":0.11241978435692417,"740":0.031431932437467135,"741":0.09856006912313182,"742":-0.010579102494628886,"743":-0.007646092249723414,"744":-0.12183078125941557,"745":0.09912484052114548,"746":-0.1204514249948355,"747":0.10701338970960282,"748":0.07646921968619526,"749":-0.11511980282492776,"750":-0.05769736654065908,"751":-0.11643384801283642,"752":0.1176279099042265,"753":0.11779517966154461,"754":0.00817285223553541,"755":0.0641297486506817,"756":-0.08838881498083986,"757":0.005975807933017669,"758":-0.05506549983723783,"759":-0.02291970025594275,"760":-0.02251575739705072,"761":0.10150114128226609,"762":-0.09957813021130822,"763":-0.020178841115243682,"764":0.06790020574428793,"765":0.07904621538371205,"766":0.012693290254004366,"767":-0.024045041266283835,"768":0.011304152967948386,"769":0.011171106238732317,"770":-0.03985393619656883,"771":-0.09001622020162897,"772":0.02990459463713436,"773":-0.027481045975284456,"774":-0.01587837747710124,"775":-0.05454255964839331,"776":0.027107806015110234,"777":0.029038224901987306,"778":0.030025381938453003,"779":0.0427325775801261,"780":-0.11535176366577063,"781":-0.02252998086061287,"782":-0.004054611079246695,"783":0.10489722560979053,"784":-0.0596902801707351,"785":0.09294165623498683,"786":-0.012637067184992589,"787":0.11425809222499964,"788":-0.03414302868079753,"789":-0.042617685205424645,"790":-0.0020163866372844845,"791":0.03002894915924786,"792":0.10911001411086586,"793":-0.09595579763269632,"794":0.026897491281618606,"795":-0.009374625532784436,"796":-0.018059555577789904,"797":-0.0507262529609084,"798":-0.09517600860670067,"799":-0.022107991154770665}},"b2":{"n":8,"d":1,"w":{"0":-0.06012332033362093,"1":0.08768122590290049,"2":0.2646703465961052,"3":0.12369337726257329,"4":1.4296469464452677,"5":0.33402489425562354,"6":0.09324051635526634,"7":0.10910199130043223}}}}
