{"nh":100,"ns":2,"na":8,"net":{"W1":{"n":100,"d":2,"w":{"0":-0.002738776324290977,"1":0.5870271414462871,"2":-0.00986645047388507,"3":0.4961881393229599,"4":0.011197074096174762,"5":0.4926998558426495,"6":0.02306295094353132,"7":0.4436909725462534,"8":0.015549996519746496,"9":0.6222571586262181,"10":-0.01792342726054598,"11":0.5608579439975838,"12":-0.016924887582246247,"13":0.49821011141361143,"14":-0.023768413821870765,"15":0.7369844594627191,"16":-0.012435879400323169,"17":0.7044989600018093,"18":0.010972209986190373,"19":-0.4632307433295296,"20":0.0029770524759307015,"21":0.7369285330672208,"22":0.019451455305462613,"23":0.05215519494711006,"24":-0.0019799222960290605,"25":-0.5651884967544764,"26":-0.004117096506227886,"27":-0.6269225691856407,"28":0.01736073907574522,"29":0.2639972379631377,"30":-0.009926921704018111,"31":0.46153556561098674,"32":0.003655744816712751,"33":0.5647755061373089,"34":-0.0036377319376711993,"35":0.35910711444993204,"36":0.01840545725313259,"37":0.06046126080365559,"38":-0.011281359301738954,"39":-0.3828819699246446,"40":0.033635553679122326,"41":-0.13295321997663087,"42":0.03544042293778605,"43":0.0014929684217199278,"44":0.008744359352866663,"45":-0.2237209369109982,"46":0.010628299980276062,"47":0.07086932174331839,"48":0.0035265040720913314,"49":-0.14833091760527628,"50":0.008042091661745451,"51":0.5941711379208994,"52":-0.016167701581209653,"53":-0.6893588191543637,"54":0.0004962025807049696,"55":0.15172698595831968,"56":-0.005486770322330944,"57":0.6033563328825031,"58":-0.005042594237254302,"59":-0.6586346080326037,"60":-0.011776378319349018,"61":0.7118374311162814,"62":-0.016142648914798167,"63":-0.39374350615065734,"64":-0.02984005257409755,"65":-0.30330394966632884,"66":0.005200648345478697,"67":0.6246179165664831,"68":-0.00037332983564846225,"69":0.6798538910917225,"70":-0.025658133956215596,"71":0.48512869866797914,"72":0.007372989096572137,"73":-0.5240484954397407,"74":-0.003330228778966717,"75":0.6769745381586401,"76":-0.0547780100507582,"77":-0.1573850654932894,"78":-0.015724054834825633,"79":0.42360984339528895,"80":-0.01171133428147582,"81":0.15170667460329654,"82":0.03010773873048588,"83":0.2976144817758405,"84":0.006296848929598053,"85":-0.7025645230162862,"86":0.01689907674952274,"87":0.4496798897011489,"88":0.019254427222227814,"89":-0.6543538873975631,"90":-0.00007658946347132014,"91":-0.6688827953848503,"92":-0.0034463253788653866,"93":-0.1854867632302198,"94":-0.0041746226447660325,"95":-0.5625014335475003,"96":-0.015570925242069902,"97":-0.1032095677755856,"98":0.009204089563418337,"99":-0.6266108697287567,"100":-0.013576074951641178,"101":-0.3308878450473039,"102":-0.030643448996288764,"103":0.21293175225043953,"104":-0.04146118437357232,"105":-0.19830493568932192,"106":-0.01448751632616962,"107":0.40377018523311603,"108":-0.012472249881190514,"109":-0.20367975285783158,"110":0.009578419341999059,"111":-0.6100040016219078,"112":-0.002219454895190478,"113":-0.2799827501463416,"114":0.01286323407146589,"115":-0.4774099127328374,"116":-0.015067925472980102,"117":-0.19533922047105798,"118":0.01149540903412264,"119":0.5443699276908522,"120":-0.009598377193282126,"121":0.40817202507452455,"122":0.007471073473264229,"123":-0.1398155612107822,"124":0.0025775147968190547,"125":0.29983449808696977,"126":0.014207471842670476,"127":0.2526043452601817,"128":0.02273149457675747,"129":0.6628026763192336,"130":-0.006346065466479036,"131":0.6104176440295358,"132":-0.003725860087138831,"133":-0.02513212992362729,"134":0.0002752143765284306,"135":0.6640150889261206,"136":-0.005787509031903225,"137":-0.6896066271017234,"138":-0.012250862890992718,"139":-0.26479886724272184,"140":0.0002658946774205383,"141":0.5753130238585837,"142":-0.011853407161820454,"143":-0.6527947972483653,"144":0.016711359639788127,"145":-0.545963903065049,"146":0.0016174852365642015,"147":0.5635675724417333,"148":-0.008783241436462802,"149":-0.3703325311340969,"150":0.03032038731652022,"151":0.7102334242442196,"152":0.0053633230885587035,"153":-0.47011147383684904,"154":-0.004512602792530428,"155":-0.6197231649888049,"156":-0.01668120021053676,"157":0.5232580111803148,"158":-0.003237850129021563,"159":0.6306994085176252,"160":0.006082435894202709,"161":-0.21098864233332693,"162":-0.00524524039580711,"163":-0.4652333359772026,"164":0.02205142516740314,"165":0.0034675791657251447,"166":-0.005411582519618217,"167":0.41840492139394797,"168":0.00934011914177306,"169":0.4634485934532249,"170":0.019644076632333925,"171":-0.6602155054532571,"172":0.0228458776560898,"173":0.36161432847964936,"174":-0.016955602862780913,"175":-0.13608208899402882,"176":0.0013190983096848345,"177":0.5838024882433819,"178":-0.01202888603882719,"179":0.6511979908152713,"180":-0.006359094375415752,"181":-0.06166789730089665,"182":0.0013260005157274815,"183":-0.7504119717517159,"184":-0.0011010074309269378,"185":0.6144516691610965,"186":-0.0011505137429477725,"187":0.6855743437937174,"188":-0.008373811502992967,"189":-0.1587485461173676,"190":-0.021209101263915536,"191":0.5836453699144156,"192":-0.0034714020824443965,"193":-0.6557633584629674,"194":0.00521055303359428,"195":0.43262219367736554,"196":0.030001502158469927,"197":-0.2639465995420871,"198":0.0015958895419027558,"199":0.6890895407531703}},"b1":{"n":100,"d":1,"w":{"0":0.009407510484476822,"1":-0.01320615896396325,"2":-0.06430321518137588,"3":-0.03542645403191693,"4":0.04004516249107226,"5":-0.02305265916676367,"6":-0.114427499408652,"7":-0.19235194428001817,"8":-0.18383701820622653,"9":0.04419876491588407,"10":-0.11780196802046962,"11":-0.03709397897764683,"12":-0.019788365346678195,"13":0.1520603857009058,"14":-0.03534390812830847,"15":-0.04161439109439721,"16":-0.04458110519484326,"17":0.05201067146091552,"18":0.04745461057700366,"19":-0.008349970595648354,"20":0.013243737883798467,"21":0.022330201111357494,"22":0.053612619380972004,"23":0.033467042507322714,"24":-0.0014576399331738287,"25":-0.04517198793333443,"26":0.04034223358619528,"27":-0.0025370925566643525,"28":-0.03298173564303824,"29":0.050225373375531825,"30":-0.10712372832194923,"31":-0.07162427001065054,"32":-0.011823638891319935,"33":-0.008836429595169892,"34":-0.09788394057465662,"35":0.040801451743326146,"36":0.02850646279519475,"37":-0.12159806379438146,"38":-0.038777939036982526,"39":0.020223244886867196,"40":-0.0014587876084794444,"41":0.03639610781501018,"42":0.13223459161910503,"43":0.011047181996914616,"44":0.13006691152943148,"45":0.019278195569707814,"46":-0.0068762190105537664,"47":0.03177578036047439,"48":0.019900540471935693,"49":0.0698506214680948,"50":-0.08497120753225618,"51":0.053518524835538574,"52":-0.0684088625570439,"53":0.11257531890736386,"54":-0.018501692843611924,"55":0.09093306736168001,"56":0.013682248192684541,"57":0.002112378599502594,"58":-0.026104495539730474,"59":-0.04898930074597284,"60":0.05815631754253804,"61":0.01709324441808476,"62":-0.02470696507702914,"63":0.031240894441380538,"64":0.020086555694204943,"65":-0.07132075168636036,"66":0.025233013075449586,"67":-0.05318013975611254,"68":0.12258288621662605,"69":0.02332935305138393,"70":-0.041621451679522345,"71":-0.0050430286879579,"72":-0.06162790194138482,"73":-0.09791905927507157,"74":-0.05903371223422494,"75":0.016650461716384974,"76":0.043966386691321774,"77":0.055230770587506785,"78":-0.005881747043640422,"79":0.027627404121650847,"80":-0.025199543456004052,"81":-0.006968375982522395,"82":0.010807253400093387,"83":0.028966192008212047,"84":0.012262235047601714,"85":0.12612658086809364,"86":-0.05678562416867135,"87":0.05260231680394714,"88":-0.05555966092154391,"89":-0.039127564826728356,"90":-0.07106718876433427,"91":0.19503442977054747,"92":0.011983304971688823,"93":-0.14451453183117932,"94":0.05958773367504805,"95":-0.048816211617361514,"96":-0.019901481086347362,"97":-0.012445028658532207,"98":-0.06112065136116231,"99":-0.06329639165616797}},"W2":{"n":8,"d":100,"w":{"0":0.26812895112880436,"1":0.20081134806825612,"2":0.20214012342088108,"3":0.16145556379308246,"4":0.31450587103091077,"5":0.24384488622576683,"6":0.16234161428039331,"7":0.31724420875120507,"8":0.2890548154008591,"9":-0.15848633578149,"10":0.363405101624492,"11":0.005755103794962767,"12":-0.2592409301559558,"13":-0.25329706765334065,"14":0.0741151012598561,"15":0.17760795986942576,"16":0.25122547181626215,"17":0.1417522697137539,"18":0.02603243798608211,"19":-0.14836356948677948,"20":-0.04356273530195703,"21":0.0030146262875107234,"22":-0.07196392541198926,"23":0.04534935925706778,"24":-0.0368125397418255,"25":0.271819597535906,"26":-0.37254070479261575,"27":0.060603940104829696,"28":0.28221126656081963,"29":-0.30347237473469163,"30":0.34067336512123386,"31":-0.16156470351371,"32":-0.1252289579973119,"33":0.2811002616205069,"34":0.3086266882872543,"35":0.17633488798209784,"36":-0.21722235067331275,"37":0.3150714173727556,"38":-0.06772582603683559,"39":0.17006114377334597,"40":0.04292498376393791,"41":0.11821180426193746,"42":-0.3218171924607833,"43":0.17143749225951926,"44":-0.26378438460311154,"45":-0.3348792831371892,"46":-0.05628893093154762,"47":-0.2436704936128853,"48":-0.040886634392755035,"49":-0.28291750683980904,"50":-0.1287622414059833,"51":0.08703132800723566,"52":-0.09437649708006421,"53":0.17567633414872996,"54":-0.09263572790182924,"55":-0.24086612122692352,"56":-0.09767150572027733,"57":-0.1826561675820024,"58":-0.06919682788335144,"59":0.22922670020910624,"60":0.1637712846259253,"61":-0.05534779376973112,"62":0.09280996471829378,"63":0.0985455092551938,"64":0.3495018584311992,"65":0.28170853917399535,"66":-0.003716601919857468,"67":0.310676137907201,"68":-0.31601674391308937,"69":-0.0897270010422038,"70":0.23514689520643278,"71":-0.3205527778281636,"72":-0.2338092450782267,"73":0.20795903940786484,"74":-0.1405592211831648,"75":0.4159874408839311,"76":-0.15868659858771386,"77":-0.2750161738076785,"78":0.1977443409667864,"79":0.3120831602254548,"80":-0.05874320805065631,"81":-0.19262035871571928,"82":0.014963497882780492,"83":0.16064929948040885,"84":0.201177580162675,"85":-0.2899454489714151,"86":0.1261889894609069,"87":-0.04353267976185149,"88":0.25742351768679284,"89":0.3104533334684872,"90":-0.054650153812123244,"91":-0.35524154173712413,"92":0.27211540857787875,"93":0.32249340966763906,"94":-0.0329246201792731,"95":0.24954080945824758,"96":-0.3198651599532898,"97":0.1765301143075225,"98":-0.09602467651925878,"99":0.34939149245400847,"100":0.2797842001259219,"101":0.1983595104464215,"102":0.17485007536594407,"103":0.1688995032093912,"104":0.3233777554950476,"105":0.23858491861982487,"106":0.16535928598856528,"107":0.3007284446006977,"108":0.2863771158862429,"109":-0.17975097812613208,"110":0.37706334450514684,"111":-0.006304037575241004,"112":-0.26869180517314795,"113":-0.23417749577287433,"114":0.07608836681251287,"115":0.167000436278334,"116":0.2500026324510437,"117":0.1375647114927756,"118":0.03157790356384883,"119":-0.14771478942536326,"120":-0.02625509097761167,"121":0.027698828963779575,"122":-0.03504055082509465,"123":0.03855647320415297,"124":-0.05063942146089958,"125":0.24510772164711975,"126":-0.36485065410176737,"127":0.04444761573452517,"128":0.257463976501664,"129":-0.33406080395901694,"130":0.34322205434395187,"131":-0.1903349553404414,"132":-0.12279639700012027,"133":0.3113320724444787,"134":0.31121362071913616,"135":0.20504191608945385,"136":-0.21264369313616394,"137":0.29967763132251074,"138":-0.06004140375196073,"139":0.15933954678742449,"140":0.04954642257598081,"141":0.12473882697174193,"142":-0.32288362866865783,"143":0.18416340724744049,"144":-0.24289184430226288,"145":-0.3421355073251274,"146":-0.0628344502521336,"147":-0.2442607453559179,"148":-0.02758976829757021,"149":-0.25561278985160263,"150":-0.14458722770603033,"151":0.08369928903810919,"152":-0.09433529019697132,"153":0.20682213352343876,"154":-0.06705608205188651,"155":-0.2446214850361154,"156":-0.09163855233696715,"157":-0.1905246297609288,"158":-0.06301966317447705,"159":0.2250203863959467,"160":0.16694993641924255,"161":-0.03183682521159472,"162":0.11031817040197145,"163":0.1011052082820777,"164":0.3724976919126091,"165":0.24154086300436842,"166":0.013954306785727233,"167":0.330038170823293,"168":-0.3159524202387075,"169":-0.08600254867766045,"170":0.2391041225478221,"171":-0.3548787629741216,"172":-0.27079870937694295,"173":0.20565239748267866,"174":-0.16727781873036937,"175":0.418958966227678,"176":-0.17184447383371182,"177":-0.2904351496095007,"178":0.21459801126902117,"179":0.327769298833883,"180":-0.08578673171748533,"181":-0.17780251395094335,"182":0.00011925488491278009,"183":0.16699869372709567,"184":0.18261533327879534,"185":-0.25700762818814954,"186":0.10498130358272148,"187":-0.02820719215663935,"188":0.2343412454318291,"189":0.31083843551615004,"190":-0.049112004504170144,"191":-0.33580370064393306,"192":0.31543841432760256,"193":0.26938921274064204,"194":-0.02240663832066154,"195":0.24193701827389813,"196":-0.361772481660641,"197":0.16555392000200894,"198":-0.09981885282761108,"199":0.34160707055116085,"200":0.2756126751773972,"201":0.1896733135973919,"202":0.1728479990896574,"203":0.17503574677023948,"204":0.32744464479751423,"205":0.22547434669574104,"206":0.14238692035778897,"207":0.31204066279336123,"208":0.2871503192725517,"209":-0.1528669825882163,"210":0.37460291307972654,"211":0.013595484934128354,"212":-0.25643377868452255,"213":-0.23635610916689337,"214":0.08191188534140237,"215":0.15941169689632603,"216":0.21902294359848898,"217":0.1572577071386143,"218":0.04342235794879326,"219":-0.14924331678061978,"220":-0.025820539147650947,"221":0.027722178267425297,"222":-0.0453780695609537,"223":0.039274666534474645,"224":-0.04537560866523403,"225":0.26362759681204234,"226":-0.36085665624535196,"227":0.04978826934414919,"228":0.27241646236267547,"229":-0.3004229952175903,"230":0.322553418845744,"231":-0.17990026615530588,"232":-0.12775576136567354,"233":0.30784198184920564,"234":0.31381803581387463,"235":0.19505044014679934,"236":-0.21700622146021484,"237":0.29448515466052094,"238":-0.08581694752004151,"239":0.15872625760133444,"240":0.03196981763494165,"241":0.12960292207690408,"242":-0.30107869867501325,"243":0.19270352636577748,"244":-0.26025951881961157,"245":-0.34163714327554684,"246":-0.06728266446934288,"247":-0.2411224485894854,"248":-0.030542916868849954,"249":-0.26081600606222005,"250":-0.1572210513431944,"251":0.07866857133694194,"252":-0.10209322627817236,"253":0.17924284369867638,"254":-0.06937347565098119,"255":-0.24484210825414376,"256":-0.0850448067024874,"257":-0.17587785985165197,"258":-0.09870422267885637,"259":0.21421941827688162,"260":0.18084105025726432,"261":-0.046340083257455526,"262":0.09235967625140583,"263":0.08767824906896539,"264":0.358735530801736,"265":0.2472994078210463,"266":-0.0023198142138708207,"267":0.32397415478101527,"268":-0.31739435220575296,"269":-0.06958827868925459,"270":0.25117405672190485,"271":-0.35130451866684376,"272":-0.2737547602851677,"273":0.2132131797283795,"274":-0.16656956847495796,"275":0.4242603511042291,"276":-0.17237109680904483,"277":-0.2774796789297442,"278":0.20714524224635258,"279":0.3226721798824822,"280":-0.08054234249293242,"281":-0.17556447352865667,"282":0.01717594029198984,"283":0.17614248147961797,"284":0.20023241543955936,"285":-0.25623934980273855,"286":0.10636979423019852,"287":-0.025246027599271307,"288":0.24340013186580298,"289":0.30083685439703134,"290":-0.030876477770290192,"291":-0.3395877292995031,"292":0.31689635229548413,"293":0.3099887932338074,"294":-0.03158647527962299,"295":0.23005567594546628,"296":-0.3511320683981837,"297":0.15337030203382876,"298":-0.10350699334366863,"299":0.3365608607122824,"300":0.2723878520162144,"301":0.18992397593182928,"302":0.16856072068407685,"303":0.152124385957845,"304":0.3467222101166776,"305":0.23023370340641222,"306":0.13050872441918226,"307":0.3183283759859393,"308":0.267071384809409,"309":-0.1513760570973727,"310":0.3842070644592506,"311":0.013528404622034673,"312":-0.2701013461832957,"313":-0.22320351489980272,"314":0.07710954025540144,"315":0.1533378533294048,"316":0.22462112036367918,"317":0.14963118719642512,"318":0.04415602101801296,"319":-0.1444821904541718,"320":-0.02839579364316156,"321":-0.002092012476428564,"322":-0.06082863705865197,"323":0.031053316713034886,"324":-0.05728186506800185,"325":0.2606304123875876,"326":-0.3632975130953538,"327":0.043521747370485656,"328":0.25516660716118816,"329":-0.32327743437252093,"330":0.35670918991079176,"331":-0.17346916542119334,"332":-0.09945841026807706,"333":0.31728936806427793,"334":0.321680743623233,"335":0.2143564968645042,"336":-0.1970851524985948,"337":0.2813037839569405,"338":-0.08293856373044335,"339":0.1669423040075275,"340":0.05325910348363917,"341":0.1205761379761984,"342":-0.32386319602892477,"343":0.18735327071174376,"344":-0.2742740362047132,"345":-0.3565680486136223,"346":-0.06477718164467582,"347":-0.22797947570604865,"348":-0.014403247537862533,"349":-0.27564787861898143,"350":-0.15447377420931913,"351":0.08046752328336955,"352":-0.10327757461229878,"353":0.19700235992155216,"354":-0.07510309860406003,"355":-0.24316942177364193,"356":-0.08372325456925633,"357":-0.19271422203851138,"358":-0.0528317006455065,"359":0.21120841406954383,"360":0.16714161110993497,"361":-0.029935874548543455,"362":0.1015006127569354,"363":0.10283622273587532,"364":0.3891323990351813,"365":0.257598234977328,"366":-0.001399666313286161,"367":0.3228233130016236,"368":-0.3065073868631657,"369":-0.08902192170606582,"370":0.23778480581734854,"371":-0.3533143733440287,"372":-0.26053371402375575,"373":0.20450574641981709,"374":-0.16103163922746713,"375":0.4518573263513259,"376":-0.15437132501647705,"377":-0.27176691947878934,"378":0.22026417789417044,"379":0.32868736749149935,"380":-0.08497607908317717,"381":-0.1907886686686184,"382":0.013456584305004803,"383":0.16077833616135007,"384":0.17380969589327916,"385":-0.264090708154829,"386":0.12111137241773269,"387":-0.013679057330201114,"388":0.23803202735989482,"389":0.3082324959830585,"390":-0.05010536973568811,"391":-0.3454759614446266,"392":0.315361963450007,"393":0.2831664036284233,"394":-0.026141161400337554,"395":0.23653396732852042,"396":-0.36367135311320486,"397":0.16454588797334593,"398":-0.1038415427035629,"399":0.3547035570700221,"400":0.25538728148794787,"401":0.21042981519675708,"402":0.17443116152647622,"403":0.14932204926167075,"404":0.28943540947769403,"405":0.2430396655361022,"406":0.20111970211583582,"407":0.3231570889524699,"408":0.29730006945436477,"409":-0.1959512453413146,"410":0.36303476293076864,"411":-0.0030473981547198834,"412":-0.24427524302599005,"413":-0.22747887454358812,"414":0.08884855802951186,"415":0.19041489048547333,"416":0.22518832344028594,"417":0.15913047996119203,"418":0.006107188452651854,"419":-0.13849673023462325,"420":-0.07877890459197981,"421":-0.02767536210122944,"422":-0.0956172060378768,"423":0.025697962921027266,"424":-0.06039334451266399,"425":0.2494613929508634,"426":-0.32823674923869206,"427":0.06287676605378896,"428":0.26615486065641253,"429":-0.2894806558487785,"430":0.3317511401399423,"431":-0.14607824440884878,"432":-0.08871361065868087,"433":0.29156640337009415,"434":0.29850031093899426,"435":0.22987334262482428,"436":-0.21519788925590252,"437":0.29236487380868814,"438":-0.01563679416910801,"439":0.191384020302271,"440":0.07125469736474098,"441":0.09131157226724396,"442":-0.30782678782329864,"443":0.16520929714854138,"444":-0.2870716937461278,"445":-0.3320346972315481,"446":-0.06478227316504793,"447":-0.23251490924396606,"448":-0.021538465024273316,"449":-0.2736922245928232,"450":-0.1314256613979398,"451":0.12216022570201701,"452":-0.04941539770073342,"453":0.19360412484169648,"454":-0.06279068713031556,"455":-0.2480431402528204,"456":-0.10524296891187677,"457":-0.20029964633379452,"458":-0.07675174369245429,"459":0.2089469116946329,"460":0.17554872210438555,"461":-0.05244056587638496,"462":0.10063408694929714,"463":0.08058766933773115,"464":0.31426764853962624,"465":0.2598783490223386,"466":-0.015295168907723545,"467":0.29729869726256103,"468":-0.2971671276911886,"469":-0.0886379191334116,"470":0.24046030785350134,"471":-0.3031266593485447,"472":-0.2645812921406938,"473":0.20847373540074143,"474":-0.1419476313834491,"475":0.4020938762745281,"476":-0.1887311500396658,"477":-0.25620020726441045,"478":0.2333139364030008,"479":0.31130113373838625,"480":-0.0908284997637358,"481":-0.18593310682314787,"482":-0.011349282139476316,"483":0.1770433402338359,"484":0.1829838627666663,"485":-0.296143474947868,"486":0.11686871545659835,"487":-0.037596071311131865,"488":0.23941428988467148,"489":0.31422501809184067,"490":-0.011126966352270402,"491":-0.32461159677100276,"492":0.27797216383320617,"493":0.2905626111800293,"494":-0.046917378169763234,"495":0.2638160892473002,"496":-0.3191381979941868,"497":0.17301489460066702,"498":-0.13676911986999812,"499":0.32202497541336883,"500":0.2131956595666926,"501":0.22743153027321655,"502":0.27223393880072433,"503":0.23553847668198127,"504":0.18088931793192495,"505":0.24292704989824496,"506":0.31684200379818317,"507":0.38772938402896506,"508":0.38291236806261175,"509":-0.2511501770094812,"510":0.2989447124104747,"511":0.060451487355451,"512":-0.20597588760153396,"513":-0.36524717653123584,"514":0.1632747787124039,"515":0.23864865309829225,"516":0.2655347217271739,"517":0.13091100072728776,"518":-0.00026117187501715534,"519":-0.17948350700206786,"520":-0.0686498386665056,"521":-0.007194388937820582,"522":-0.1549385182300681,"523":0.013251589817941467,"524":-0.07412005563249727,"525":0.2615172223548159,"526":-0.23691969521682285,"527":0.07960822721053669,"528":0.24643425698704022,"529":-0.2587727698740991,"530":0.30265877363730276,"531":-0.1282897204272333,"532":-0.1440826933569165,"533":0.23141481489113166,"534":0.30819288120255883,"535":0.17346754027365408,"536":-0.2526460630954842,"537":0.32822319841175474,"538":-0.055802735937889494,"539":0.1751510602569659,"540":0.07609253185079087,"541":0.12174327451170318,"542":-0.33734548610138326,"543":0.2001445726749204,"544":-0.3486621045612948,"545":-0.22710185168766645,"546":-0.09201621129168805,"547":-0.25138874636428193,"548":-0.07005609360534597,"549":-0.28277928580140277,"550":-0.09233776697909972,"551":0.05864777049481333,"552":-0.05423535715294979,"553":0.0933091904988159,"554":-0.08825585878351341,"555":-0.30607028843650985,"556":-0.1500725978802386,"557":-0.21416602236512272,"558":-0.07735986948422893,"559":0.26739471154779726,"560":0.1348290862426676,"561":-0.08134701209326976,"562":0.17349684419294084,"563":0.09925405219738995,"564":0.19576496775575178,"565":0.2918352771842495,"566":-0.03419129929711436,"567":0.2629080226781048,"568":-0.3272886773748958,"569":-0.15601362844368685,"570":0.2609744215663971,"571":-0.21541351043770576,"572":-0.17159123084145952,"573":0.31076426459459033,"574":-0.13076230814198542,"575":0.17958063960849052,"576":-0.24634139555577111,"577":-0.274545324364866,"578":0.22436746889235415,"579":0.19529728333418003,"580":-0.09355413698788961,"581":-0.19709995317841092,"582":0.0007991667440713894,"583":0.16591415733252787,"584":0.1901427248526837,"585":-0.34055877577717925,"586":0.22711490207547613,"587":-0.11139014274426624,"588":0.2727483172289059,"589":0.25544674569532716,"590":0.022120150208597273,"591":-0.37883158244132387,"592":0.21760834355359035,"593":0.3500943309969531,"594":-0.12318912439317092,"595":0.2721862842804888,"596":-0.19504736114291593,"597":0.2101388060807435,"598":-0.07410170006485425,"599":0.26516289285746597,"600":0.27906677793650425,"601":0.1922469633649118,"602":0.18009339580231035,"603":0.1703713823591468,"604":0.3065287230711051,"605":0.23225323150328261,"606":0.17340748728090316,"607":0.34030654922476955,"608":0.31473834587101573,"609":-0.17219131757873407,"610":0.3801331889885103,"611":0.016161766977501213,"612":-0.2495484984153827,"613":-0.24225157248578114,"614":0.09415003297611559,"615":0.16755999661227217,"616":0.2261630502212021,"617":0.1340488850613664,"618":0.03220178915267292,"619":-0.14733635223742395,"620":-0.040875676971342034,"621":-0.0016806463971067312,"622":-0.07129586348389819,"623":0.017434724559284534,"624":-0.04917681652212648,"625":0.252166756726717,"626":-0.349917804209269,"627":0.03780742988644978,"628":0.28018729061574055,"629":-0.330436949875156,"630":0.34502088054125213,"631":-0.15229319558184815,"632":-0.09945443532438286,"633":0.2671229453627884,"634":0.3334297936811129,"635":0.21996889714057744,"636":-0.20773885441455564,"637":0.2964103958825401,"638":-0.05562590024448155,"639":0.1659376249964093,"640":0.05090062998818317,"641":0.10156177122420956,"642":-0.3348029760256045,"643":0.1830417841343104,"644":-0.2708919371318624,"645":-0.3129813092814908,"646":-0.07071518708227816,"647":-0.22087201558520853,"648":-0.04071965383695056,"649":-0.2797861105693849,"650":-0.13979583661886513,"651":0.06808726732687705,"652":-0.06894974654198537,"653":0.1611041007986552,"654":-0.06013548547467959,"655":-0.25599154416191205,"656":-0.09503221181369831,"657":-0.1906005298113075,"658":-0.07642901090944075,"659":0.2196700832604076,"660":0.17355694152756138,"661":-0.026498042804300938,"662":0.09409372310486393,"663":0.09754910984300406,"664":0.3447600240163303,"665":0.26044188182740585,"666":-0.01120777325462936,"667":0.3162815457697782,"668":-0.33422482090610245,"669":-0.09441578915024625,"670":0.2544259368686686,"671":-0.33346968640272046,"672":-0.23262749496592522,"673":0.2226558641575838,"674":-0.14209105477742717,"675":0.42058456132297406,"676":-0.1858073197545073,"677":-0.268123853525934,"678":0.22616906255512678,"679":0.31506274775093757,"680":-0.0675338721343626,"681":-0.20184414773304,"682":-0.018032303669354436,"683":0.14847075064825035,"684":0.19247727434021075,"685":-0.2878757428026261,"686":0.11949423043401063,"687":-0.04023536537011073,"688":0.25085903045580554,"689":0.3119923905945176,"690":-0.03342745244004879,"691":-0.3503170280811662,"692":0.2768468409557398,"693":0.3058444400543683,"694":-0.06974103527799536,"695":0.23185753111926335,"696":-0.3378624455295627,"697":0.14469547965061277,"698":-0.10694764969429757,"699":0.3464152810723352,"700":0.2655595925133587,"701":0.19716757568050727,"702":0.192918320371717,"703":0.16150534630818464,"704":0.30271485415995225,"705":0.2410500975045613,"706":0.17849733911110718,"707":0.36061874947342515,"708":0.33521005246029245,"709":-0.1581230027628333,"710":0.3910029969396727,"711":0.022100886612426474,"712":-0.24060447941020732,"713":-0.2708845037030355,"714":0.08784719375300944,"715":0.16417433161601627,"716":0.23560889864198883,"717":0.12304946674773354,"718":0.024013592286249774,"719":-0.12519161953121094,"720":-0.052166372591858266,"721":0.0032811155316970746,"722":-0.06221808927066342,"723":0.012245055013745345,"724":-0.04822134650797507,"725":0.25844241798568957,"726":-0.35407216916882783,"727":0.04955942427041756,"728":0.2713966427223174,"729":-0.325341856295921,"730":0.3665932021900773,"731":-0.15931834972187725,"732":-0.10697544571076022,"733":0.30055203520645124,"734":0.3156583591146836,"735":0.2127310819522055,"736":-0.1896707141662482,"737":0.32064876076287097,"738":-0.06509317901435037,"739":0.15129514350187054,"740":0.05363428516184982,"741":0.10991127377687049,"742":-0.322939793449107,"743":0.1638926882753781,"744":-0.2812340760952195,"745":-0.34335485540614163,"746":-0.056562775086518975,"747":-0.25083057827213356,"748":-0.03367475559406761,"749":-0.28636865712755555,"750":-0.12268252739050049,"751":0.07224912790662064,"752":-0.060934905834215104,"753":0.15230563308149728,"754":-0.09045257817889646,"755":-0.2812607964689654,"756":-0.10214856659125013,"757":-0.19081216201821125,"758":-0.06811176541982523,"759":0.2202709854953506,"760":0.16583102254880233,"761":-0.06043687985224504,"762":0.09546789187967897,"763":0.10003606338106753,"764":0.31152143109650554,"765":0.25843761078876576,"766":0.004330825765556947,"767":0.3273927575835207,"768":-0.3190267561033828,"769":-0.08061392240224877,"770":0.2413486903863033,"771":-0.31422884815010044,"772":-0.24313990997978074,"773":0.23929754253991165,"774":-0.13494217251458657,"775":0.38658532478994,"776":-0.18060321084653894,"777":-0.2789794655397378,"778":0.21417568212165092,"779":0.3086018671783469,"780":-0.05938896005266579,"781":-0.18586190156650734,"782":0.0004576213132012625,"783":0.1828339989521962,"784":0.18417040952983846,"785":-0.28244548294787325,"786":0.12288350502799678,"787":-0.04971635606032347,"788":0.249588396448441,"789":0.29061078898020926,"790":-0.021426721215591586,"791":-0.37282069285999203,"792":0.27852237781462014,"793":0.3178029242009143,"794":-0.05750728471211377,"795":0.24345106741403333,"796":-0.33848605111468943,"797":0.15504053523229117,"798":-0.0987413273844985,"799":0.3494578014943156}},"b2":{"n":8,"d":1,"w":{"0":1.0063640709167223,"1":0.9464620127256625,"2":1.0575289216782764,"3":0.810174457969178,"4":1.1091489685394214,"5":1.332897796358478,"6":0.9184985240625774,"7":0.8090777506122069}}}}
